//Numpy array shape [64]
//Min -1.857483267784
//Max 2.929096221924
//Number of zeros 0

#ifndef B2_H_
#define B2_H_

#ifndef __SYNTHESIS__
dense_bias_t b2[64];
#else
dense_bias_t b2[64] = {-1.6961312294, 0.7301835418, -1.8574832678, 0.3825981319, -0.8869042993, 0.8783037663, 0.0864525214, 0.2477063835, -1.0182793140, -0.6545701623, 0.2072173953, 0.5835699439, 2.9290962219, 0.2228583246, 0.9760375023, -1.5569338799, -1.3298919201, -0.3554947674, -1.1974277496, 1.4863992929, -0.4102186859, 1.3821818829, 1.4867824316, 0.0427797213, 0.5017997622, -0.0560994744, 0.5384370089, 0.4833418429, -0.1236496270, 0.5049699545, 1.7236962318, 0.7130162120, 0.3257996142, 0.1247695237, -1.0126731396, -1.0272969007, 0.3233565390, -1.3693910837, -0.7663276196, 1.2815113068, 1.9142297506, -1.6659560204, 1.6266496181, -0.2114382982, -0.0150050875, -0.1134116277, 1.0805441141, -1.6076766253, 0.4561636150, -0.9448701739, 0.5707885027, 1.5427963734, -0.0004173264, 0.3741550744, 0.4095517695, -0.7995935082, 1.5116393566, 1.7064682245, 0.7017833591, 0.0732854307, -0.4618938267, -0.6264902353, 1.7108365297, 1.4144150019};

#endif

#endif
