//Numpy array shape [32, 64]
//Min -3.116856575012
//Max 3.170974731445
//Number of zeros 0

#ifndef W2_H_
#define W2_H_

#ifndef __SYNTHESIS__
dense_weight_t w2[2048];
#else
dense_weight_t w2[2048] = {1.7640523911, 0.4001572132, 0.9787380099, 2.2408931255, 1.8675580025, -0.9772778749, 0.9500884414, -0.1513572037, -0.1032188535, 0.4105985165, 0.1440435648, 1.4542734623, 0.7610377073, 0.1216750145, 0.4438632429, 0.3336743414, 1.4940791130, -0.2051582634, 0.3130677044, -0.8540957570, -2.5529897213, 0.6536185741, 0.8644362092, -0.7421650290, 2.2697546482, -1.4543657303, 0.0457585156, -0.1871838570, 1.5327792168, 1.4693588018, 0.1549474299, 0.3781625330, -0.8877857327, -1.9807964563, -0.3479121625, 0.1563489735, 1.2302906513, 1.2023798227, -0.3873268068, -0.3023027480, -1.0485529900, -1.4200179577, -1.7062702179, 1.9507753849, -0.5096521974, -0.4380742908, -1.2527953386, 0.7774903774, -1.6138978004, -0.2127402872, -0.8954665661, 0.3869025111, -0.5108051300, -1.1806322336, -0.0281822290, 0.4283318818, 0.0665172189, 0.3024719059, -0.6343221068, -0.3627411723, -0.6724604368, -0.3595531583, -0.8131462932, -1.7262825966, 0.1774261445, -0.4017809331, -1.6301983595, 0.4627822638, -0.9072983861, 0.0519453958, 0.7290905714, 0.1289829165, 1.1394007206, -1.2348258495, 0.4023416340, -0.6848101020, -0.8707971573, -0.5788496733, -0.3115525246, 0.0561653413, -1.1651498079, 0.9008265138, 0.4656624496, -1.5362436771, 1.4882521629, 1.8958891630, 1.1787796021, -0.1799248308, -1.0707526207, 1.0544517040, -0.4031769335, 1.2224450111, 0.2082749754, 0.9766390324, 0.3563663960, 0.7065731883, 0.0105000203, 1.7858705521, 0.1269120872, 0.4019893706, 1.8831506968, -1.3477590084, -1.2704850435, 0.9693967104, -1.1731233597, 1.9436211586, -0.4136189818, -0.7474548221, 1.9229420424, 1.4805147648, 1.8675589561, 0.9060446620, -0.8612256646, 1.9100649357, -0.2680033743, 0.8024563789, 0.9472519755, -0.1550100893, 0.6140793562, 0.9222066998, 0.3764255345, -1.0994007587, 0.2982381880, 1.3263858557, -0.6945678592, -0.1496345401, -0.4351535439, 1.8492637873, 0.6722947359, 0.4074618220, -0.7699160576, 0.5392491817, -0.6743326783, 0.0318305567, -0.6358460784, 0.6764332652, 0.5765908360, -0.2082987577, 0.3960067034, -1.0930615664, -1.4912575483, 0.4393917024, 0.1666734964, 0.6350314617, 2.3831448555, 0.9444794655, -0.9128222466, 1.1170163155, -1.3159073591, -0.4615845978, -0.0682416037, 1.7133426666, -0.7447548509, -0.8264385462, -0.0984525234, -0.6634783149, 1.1266359091, -1.0799314976, -1.1474686861, -0.4378200471, -0.4980324507, 1.9295320511, 0.9494208097, 0.0875512436, -1.2254354954, 0.8443629742, -1.0002152920, -1.5447710752, 1.1880297661, 0.3169426024, 0.9208588004, 0.3187276423, 0.8568305969, -0.6510255933, -1.0342428684, 0.6815944910, -0.8034096360, -0.6895498037, -0.4555324912, 0.0174791589, -0.3539939225, -1.3749512434, -0.6436184049, -2.2234032154, 0.6252314448, -1.6020576954, -1.1043833494, 0.0521650799, -0.7395629883, 1.5430146456, -1.2928569317, 0.2670508623, -0.0392828174, -1.1680934429, 0.5232766867, -0.1715463251, 0.7717905641, 0.8235041499, 2.1632359028, 1.3365279436, -0.3691818416, -0.2393791825, 1.0996595621, 0.6552637219, 0.6401315331, -1.6169559956, -0.0243261252, -0.7380309105, 0.2799246013, -0.0981503874, 0.9101788998, 0.3172182143, 0.7863279581, -0.4664191008, -0.9444462657, -0.4100497067, -0.0170204137, 0.3791517317, 2.2593090534, -0.0422571525, -0.9559450150, -0.3459817767, -0.4635959864, 0.4814814627, -1.5407969952, 0.0632619932, 0.1565065384, 0.2321810424, -0.5973160863, -0.2379217297, -1.4240609407, -0.4933198690, -0.5428614616, 0.4160500467, -1.1561824083, 0.7811980844, 1.4944845438, -2.0699849129, 0.4262587428, 0.6769080162, -0.6374370456, -0.3972718120, -0.1328805834, -0.2977908850, -0.3090129793, -1.6760038137, 1.1523315907, 1.0796185732, -0.8133642673, -1.4664243460, 0.5210648775, -0.5757879615, 0.1419531703, -0.3193284273, 0.6915387511, 0.6947491169, -0.7255973816, -1.3833639622, -1.5829384327, 0.6103793979, -1.1888592243, -0.5068163276, -0.5963140130, -0.0525672957, -1.9362797737, 0.1887785941, 0.5238910317, 0.0884220898, -0.3108861744, 0.0974001661, 0.3990463316, -2.7725927830, 1.9559123516, 0.3900933266, -0.6524085999, -0.3909533620, 0.4937417805, -0.1161039397, -2.0306844711, 2.0644929409, -0.1105406582, 1.0201727152, -0.6920498610, 1.5363770723, 0.2863436937, 0.6088438630, -1.0452533960, 1.2111452818, 0.6898181438, 1.3018462658, -0.6280875802, -0.4810271263, 2.3039166927, -1.0600157976, -0.1359497011, 1.1368913651, 0.0977249667, 0.5829536915, -0.3994490206, 0.3700558841, -1.3065268993, 1.6581306458, -0.1181640476, -0.6801782250, 0.6663830876, -0.4607197940, -1.3342584372, -1.3467174768, 0.6937731504, -0.1595734358, -0.1337015629, 1.0777437687, -1.1268258095, -0.7306777239, -0.3848797977, 0.0943515897, -0.0421714522, -0.2868871987, -0.0616264008, -0.1073052734, -0.7196043730, -0.8129929900, 0.2745163441, -0.8909150958, -1.1573553085, -0.3122922480, -0.1576670110, 2.2567234039, -0.7047002912, 0.9432607293, 0.7471883297, -1.1889449358, 0.7732529640, -1.1838806868, -2.6591722965, 0.6063195467, -1.7558906078, 0.4509344697, -0.6840109229, 1.6595507860, 1.0685093403, -0.4533858001, -0.6878376007, -1.2140773535, -0.4409226179, -0.2803554833, -0.3646935523, 0.1567038596, 0.5785214901, 0.3496544659, -0.7641439438, -1.4377914667, 1.3645318747, -0.6894491911, -0.6522936225, -0.5211893320, -1.8430695534, -0.4779739976, -0.4796558022, 0.6203582883, 0.6984571218, 0.0037708890, 0.9318483472, 0.3399649858, -0.0156821124, 0.1609281749, -0.1906534880, -0.3948495090, -0.2677335441, -1.1280113459, 0.2804417014, -0.9931235909, 0.8416312933, -0.2494585812, 0.0494949818, 0.4938367903, 0.6433144808, -1.5706233978, -0.2069036812, 0.8801789284, -1.6981058121, 0.3872804642, -2.2555642128, -1.0225068331, 0.0386305526, -1.6567151546, -0.9855107665, -1.4718350172, 1.6481349468, 0.1642277539, 0.5672903061, -0.2226751000, -0.3534317613, -1.6164741516, -0.2918373644, -0.7614921927, 0.8579239249, 1.1411018372, 1.4665787220, 0.8525519371, -0.5986539125, -1.1158969402, 0.7666631937, 0.3562928140, -1.7685384750, 0.3554818034, 0.8145198226, 0.0589255877, -0.1850536764, -0.8076484799, -1.4465347528, 0.8002979755, -0.3091144562, -0.2334666550, 1.7327212095, 0.6845011115, 0.3708249927, 0.1420617998, 1.5199948549, 1.7195893526, 0.9295051098, 0.5822246075, -2.0946030617, 0.1237219125, -0.1301069558, 0.0939532295, 0.9430460930, -2.7396771908, -0.5693120360, 0.2699043453, -0.4668455422, -1.4169061184, 0.8689634800, 0.2768719196, -0.9711045623, 0.3148171902, 0.8215857148, 0.0052926461, 0.8005648255, 0.0782601759, -0.3952289820, -1.1594204903, -0.0859307647, 0.1942929327, 0.8758327365, -0.1151074693, 0.4574156106, -0.9646120071, -0.7826291323, -0.1103892997, -1.0546284914, 0.8202478290, 0.4631303251, 0.2790957689, 0.3389041126, 2.0210435390, -0.4688642025, -2.2014412880, 0.1993001997, -0.0506035425, -0.5175190568, -0.9788298607, -0.4391895235, 0.1813384295, -0.5028166771, 2.4124536514, -0.9605043530, -0.7931173444, -2.2886199951, 0.2514844239, -2.0164065361, -0.5394546390, -0.2756705284, -0.7097279429, 1.7388726473, 0.9943943620, 1.3191368580, -0.8824188113, 1.1285940409, 0.4960009456, 0.7714059353, 1.0294388533, -0.9087632298, -0.4243176281, 0.8625960350, -2.6556191444, 1.5133280754, 0.5531320572, -0.0457039624, 0.2205076516, -1.0299352407, -0.3499433696, 1.1002843380, 1.2980220318, 2.6962239742, -0.0739246681, -0.6585529447, -0.5142339468, -1.0180418491, -0.0778547525, 0.3827324212, -0.0342422798, 1.0963468552, -0.2342157960, -0.3474506438, -0.5812684894, -1.6326345205, -1.5677677393, -1.1791579723, 1.3014280796, 0.8952602744, 1.3749641180, -1.3322116137, -1.9686247110, -0.6600562930, 0.1758189499, 0.4986902773, 1.0479722023, 0.2842796743, 1.7426687479, -0.2226056755, -0.9130792022, -1.6812182665, -0.8889713287, 0.2421179563, -0.8887202740, 0.9367424846, 1.4123276472, -2.3695869446, 0.8640522957, -2.2396039963, 0.4014990628, 1.2248705626, 0.0648561046, -1.2796891928, -0.5854312181, -0.2616454363, -0.1822447777, -0.2028968334, -0.1098827794, 0.2134800553, -1.2085736990, -0.2420198321, 1.5182611942, -0.3846454322, -0.4438360929, 1.0781973600, -2.5591845512, 1.1813786030, -0.6319037676, 0.1639285684, 0.0963213593, 0.9424681067, -0.2675947547, -0.6780257821, 1.2978458405, -2.3641738892, 0.0203341823, -1.3479254246, -0.7615733743, 2.0112566948, -0.0445954278, 0.1950697005, -1.7815628052, -0.7290446758, 0.1965574026, 0.3547576964, 0.6168865561, 0.0086278990, 0.5270041823, 0.4537819028, -1.8297404051, 0.0370057225, 0.7679024339, 0.5898798108, -0.3638588190, -0.8056265116, -1.1183118820, -0.1310540140, 1.1330798864, -1.9518041611, -0.6598917246, -1.1398024559, 0.7849575281, -0.5543096066, -0.4706376493, -0.2169495672, 0.4453932643, -0.3923889995, -3.0461430550, 0.5433118939, 0.4390429556, -0.2195410281, -1.0840365887, 0.3517801166, 0.3792355359, -0.4700328708, -0.2167314738, -0.9301565289, -0.1785890907, -1.5504293442, 0.4173188210, -0.9443684816, 0.2381031513, -1.4059629440, -0.5900576711, -0.1104894057, -1.6606998444, 0.1151478738, -0.3791475594, -1.7423561811, -1.3032428026, 0.6051200628, 0.8955559731, -0.1319086403, 0.4047618210, 0.2238435596, 0.3296229839, 1.2859840393, -1.5069984198, 0.6764607430, -0.3820089698, -0.2242589295, -0.3022497296, -0.3751471043, -1.2261961699, 0.1833391935, 1.6709430218, -0.0561330207, -0.0013850428, -0.6872990131, -0.1174745485, 0.4661664367, -0.3702424467, -0.4538040459, 0.4032645524, -0.9180047512, 0.2524966300, 0.8203217983, 1.3599485159, -0.0903820097, 1.3675972223, 1.0344098806, -0.9962126613, -1.2179385424, -0.3049636483, 1.0289355516, -0.0722870082, -0.6006575823, 1.5522432327, 0.2869044840, -2.3205943108, 0.3171606362, 0.5200406313, 0.2256086618, 0.4497120976, -0.0672756061, -1.3183958530, -0.3707039952, -0.9456157684, -0.9327409267, -1.2630683184, 0.4524890780, 0.0978961438, -0.4481653571, -0.6493379474, -0.0234231055, 1.0791947842, -2.0042157173, 0.3768765330, -0.5457119942, -1.8845858574, -1.9457030296, -0.9127835035, 0.2195095569, 0.3930629194, -0.9389815927, 1.0170209408, 1.4229835272, 0.3960865736, -0.5914026499, 1.1244192123, 0.7553957105, 0.8674074411, -0.6564636827, -2.8345544338, 2.1167910099, -1.6108783484, -0.0357680731, 2.3807454109, 0.3305767477, 0.9492464662, -1.5023965836, -1.7776669264, -0.5327028036, 1.0907497406, -0.3462494612, -0.7946363091, 0.1979672909, 1.0819351673, -1.4449402094, -1.2105430365, -0.7886692286, 1.0946383476, 0.2348215282, 2.1321535110, 0.9364457130, -0.0350951776, 1.2650778294, 0.2114970088, -0.7049213648, 0.6799748540, -0.6963266730, -0.2903971076, 1.3277827501, -0.1012814865, -0.8031414151, -0.4643376768, 1.0217906237, -0.5525406599, -0.3868708611, -0.5102927685, 0.1839254946, -0.3854897618, -1.6018360853, -0.8871809244, -0.9327890277, 1.2433193922, 0.8126740456, 0.5872593522, -0.5053583384, -0.8157915473, -0.5075175762, -1.0518801212, 2.4972004890, -2.2453217506, 0.5640085340, -1.2845523357, -0.1043434888, -0.9880019426, -1.1776289940, -1.1401963234, 1.7549861670, -0.1329884231, -0.7657021880, 0.5557869673, 0.0103493147, 0.7200337648, -1.8242566586, 0.3036039174, 0.7726948261, -1.6615983248, 0.4481952786, 1.6961815357, -0.0148577038, 0.8214059472, 0.6705704331, -0.7075057030, 0.0397667363, -1.5669946671, -0.4513030350, 0.2656879723, 0.7231004834, 0.0246121250, 0.7199837565, -1.1029062271, -0.1016972736, 0.0192793850, 1.8495912552, -0.2141666561, -0.4990166426, 0.0213512238, -0.9191134572, 0.1927538514, -0.3650552034, -1.7913275957, -0.0585865527, -0.3175430894, -1.6324232817, -0.0671341568, 1.4893559217, 0.5213037729, 0.6119272113, -1.3414967060, 0.4768983722, 0.1484495848, 0.5290452242, 0.4226286113, -1.3597806692, -0.0414008126, -0.7578708529, -0.0500840954, -0.8974009156, 1.3124703169, -0.8589723706, -0.8989421725, 0.0745864064, -1.0770990849, -0.4246633053, -0.8299645782, 1.4111720324, 0.7858038545, -0.0574695170, -0.3912170529, 0.9409176111, 0.4052040875, 0.4980524182, -0.0261922367, -1.6882300377, -0.1124659851, -0.5324898958, 0.6450552940, 1.0118424892, -0.6579510570, 0.4683852196, 1.7358789444, -0.6677127481, 1.6819217205, -0.8525858521, 0.0229597557, -0.0111456122, 0.0114989001, -0.8376780152, -0.5911831260, -0.6677202582, 0.3269625902, 0.3300351202, 2.2259442806, 1.3709889650, -0.5098432302, 0.3248696029, 0.9971179962, 0.0306018237, -0.0696415752, 0.0515749417, 0.8672766089, -0.8483205438, -0.3256694674, 0.4704331458, 0.3114470840, 0.2395827621, -0.3698011637, 0.9725357890, 2.1338682175, 0.4064154923, -0.1931767017, 0.7557402849, -0.5391326547, -0.7496903539, 0.0328087471, -2.5827965736, -1.1539503336, -0.3479618430, -1.3533889055, -1.0326430798, -0.4367483258, -1.6429653168, -0.4060717821, -0.5352701545, 0.0254052076, 1.1541839838, 0.1725044101, 0.0210620221, 0.0994544551, 0.2273927778, -1.0167386532, -0.1147753224, 0.3087512553, -1.3707599640, 0.8656529188, 1.0813760757, -0.6313759685, -0.2413377911, -0.8781903386, 0.6993804574, -1.0612223148, -0.2224770039, -0.8589199185, 0.0509542786, -1.7942292690, 1.3264616728, -0.9646064043, 0.0598946847, -0.2125230432, -0.7621145248, -0.8877801299, 0.9363985658, -0.5256406069, 0.2711701989, -0.8014968634, -0.6471814513, 0.4722471535, 0.9304084778, -0.1753164083, -1.4219198227, 1.9979560375, -0.8565493226, -1.5415873528, 2.5944244862, -0.4040322900, -1.4617327452, -0.6834397912, 0.3675448895, 0.1903115511, -0.8517292142, 1.8227236271, -0.5215796828, -1.1846865416, 0.9606934190, 1.3290628195, -0.8174930811, -1.4013472795, 1.0304383039, -2.0473237038, -1.2266216278, 0.9674461484, -0.0553525463, -0.2639373541, 0.3528166115, -0.1527744234, -1.2986867428, 1.2760753632, 1.3250139952, 0.2053325623, 0.0451340154, 2.3396248817, -0.2764328420, -0.2595769763, 0.3644812405, 1.4713219404, 1.5927706957, -0.2585726380, 0.3083312511, -1.3780834675, -0.3119761050, -0.8402903676, -1.0068317652, 1.6815767288, -0.7922866344, -0.5316058993, 0.3658487797, 1.2978252172, 0.4811151326, 2.7593550682, -0.0746679753, 0.2587164342, 0.2756006718, 1.4350494146, 0.5072389245, -0.1162296981, -0.9474886060, 0.2444434613, 1.4013447762, -0.4103817940, 0.5289435983, 0.2461477816, 0.8635196686, -0.8047537208, 2.3466470242, -1.2791610956, -0.3655510843, 0.9380925298, 0.2967331707, 0.8299861550, -0.4961023331, -0.0748049840, 0.0122319832, 1.5692596436, 0.6904290318, 0.7966721058, -0.6579260826, 0.9688826203, 0.2255816609, 1.3891453743, 2.0140602589, -0.3067657650, -0.4063031375, -0.8640449643, -0.1435795128, -0.3820254505, 0.3595044017, -0.1445668191, -0.3615992665, 1.0645850897, -0.9378802180, 0.4331079423, -0.4059417248, 0.7243685126, 1.3852615356, -0.3030982614, 0.4410329163, 0.1787928641, -0.7994223833, 0.2407875061, 0.2891204953, 0.4128708243, -0.1983989030, 0.0941923037, -1.1476109028, -0.3581140637, 0.5559626818, 0.8924738765, -0.4223148227, 0.1047140285, 0.2280533314, 0.2014799416, 0.5407735705, -1.8180776834, -0.0493240692, 0.2390335947, -1.0003303289, 1.6739857197, 0.1615592688, 1.5634047985, -0.7905229926, -0.9073001146, 0.2242522240, -1.6786884069, 0.2149655968, 0.0972192287, 1.0156652927, 0.7010413408, -0.4174773395, -1.0974966288, 1.7123051882, -0.7921150327, -1.0455245972, -1.0848560333, 1.1173052788, -0.5189002156, -0.7537044883, 0.1376898289, -0.2069447041, -0.6780954599, 0.7539914846, 1.0653154850, 0.9853175282, 0.7669196725, 0.4026255310, -1.7758879662, 1.6692508459, 0.3019891977, 0.6081564426, 1.1149623394, 1.4333524704, 0.4183980227, 0.4355461597, -0.5992242694, 0.0330897495, -0.8541612625, -0.7199405432, -0.8935744166, -0.1560238898, 1.0490932465, 3.1709747314, 0.1894996315, -1.3484131098, 1.2649832964, -0.3007838726, -0.6606085896, 0.2098494768, -1.2406245470, 0.2224631608, -0.0883755237, 0.0983779058, 0.3814162612, 0.0674922541, 0.0163380839, 0.2843145132, 0.4154006243, -1.0314824581, -1.4299912453, -0.0616380535, -1.4327354431, 0.0875314698, 0.9387468696, 0.6071116924, -1.0481704473, -0.8602624536, 0.3283012807, -0.4012978077, -0.3166553080, 0.5969064832, -0.9872866869, -0.4012347162, -0.8000825047, -1.0431294441, -0.8570781946, 0.6774621606, 0.0518203899, -0.8791606426, -0.2311016023, -1.6388072968, -0.7333127856, 2.1495745182, -0.0902438462, 0.7316589355, -0.0654883757, 0.3481692374, 0.6632580757, -1.1046166420, -0.0309362579, 1.5788651705, -0.7955005765, -0.5664398670, -0.3076912761, 0.2690240741, 0.5249178410, 1.2674117088, 0.4994982481, -0.0620531254, 1.2591670752, 0.7041110396, -1.4956794977, 2.5263681412, 1.7699214220, -0.1682142168, 0.3779101074, 1.3243587017, -0.1722007990, 0.7303518057, 1.1045784950, -1.0148259401, -0.6023318768, 0.9214084148, 0.4608144760, 0.9237965345, -0.1325680166, -0.2890052199, -1.9986394644, -1.1460003853, 0.0470660962, 0.8245572448, 0.5311783552, -0.1282419711, -0.2717715800, 0.2171796262, 0.0782111809, 1.4045455456, 0.1464407742, -1.4812459946, -1.2725580931, 1.5187593699, -1.1711604595, 0.7644974589, -0.2683727443, -0.1697582901, -0.1341327876, 1.2213850021, -0.1928418279, -0.0333192833, -1.5308034420, 0.2066905051, 0.5310425162, 0.2391455770, 1.3978962898, 0.0551713556, 0.2989774644, 1.6485040188, -1.5500141382, -0.4558253586, 1.4261587858, 0.9361291528, 0.6783800721, 0.8326507211, 0.3270662129, 1.6315973997, 0.3777591586, 0.2398671061, 0.1589586735, 0.1928639561, -1.1570172310, 0.7706730366, -0.1304397285, 1.8219151497, -0.0756504685, 0.4209182858, 0.2466021925, -0.6255570054, 0.9921368361, 1.9050636292, -0.0147772199, -0.3004787862, -0.3550287187, -1.8923618793, -0.1778131425, 0.2509981096, 1.0547579527, 0.9600477219, -0.4164990783, -0.2768229842, 1.1239053011, -0.1734638959, -0.5100295544, 1.3925184011, 1.0375856161, 0.0187917911, -0.5937774181, -2.0118803978, 0.5897036195, -0.8963696957, -1.9627319574, 1.5848205090, 0.6479678154, -1.1390081644, -1.2144013643, 0.8709617853, -0.8779706359, 1.2961498499, 0.6164593101, 0.5365965366, 0.4046954513, 0.1914508790, 0.8805112243, -0.4540803730, 0.0859519765, 0.7519465685, 0.5629897118, -1.1949868202, -0.5004096627, 0.2528035045, -0.4080147147, 1.7746585608, -0.3931531906, -0.1622184515, 0.7694301605, 0.3305327296, -0.1452744603, -0.7564935088, 0.3015140593, 1.0390964746, 0.4790952206, -0.7781835198, 1.7367749214, -1.4465779066, -1.5826855898, 0.9605572224, 0.2258404791, -0.5494985580, -1.0985707045, 2.3207998276, 0.1170908734, 0.5342011452, 0.3178851008, 0.4348079562, 0.5400944352, 0.7324240208, -0.3752224147, -0.2916419804, -1.7410228252, -0.7803044319, 0.2711127996, 1.0450233221, 0.5990395546, -0.3406923413, -1.2631728649, -2.7773592472, 1.1517339945, -0.5892289877, -0.4484650195, 0.1315739751, -1.4055600166, -0.3497821689, 2.0234718323, 0.5053869486, 0.3592491448, -1.5824944973, 2.2436017990, -1.4227949381, 1.9223247766, -2.1150560379, 1.4053654671, 1.6180542707, -0.8244091272, 0.4225803614, 0.5474805832, -0.8137944937, -1.4491176605, -1.3177173138, 0.5410082340, -0.0851156041, -0.5643010139, 0.9667680264, 0.5080679059, -0.7554627061, -1.2012015581, 0.5232617259, -0.5375833511, 0.0992048606, 1.5762989521, 0.5023282170, -0.8622670174, 0.1606611907, -0.9526449442, 1.6085221767, -0.5615787506, 0.2072707415, 0.3077325821, 0.1592504680, -1.9585489035, -1.4464210272, -0.4523502886, 0.3194318414, -0.1377792209, -0.9571474791, -1.3484243155, -0.4015575349, -0.4684760571, 0.5128364563, -0.3263184726, 0.6027076840, -0.5946497917, -0.2559576631, -0.3480463922, -0.7823669910, 0.6251186728, -0.8135960102, -0.5216414928, -0.0731196478, -1.2973796129, -0.3249349594, -0.7113063335, -0.3881541789, -0.0599280037, -0.7999136448, -0.2200757861, 1.3086687326, -0.0257985573, 1.1452621222, 0.3464944363, 0.7741606236, -0.7744589448, 0.1049071625, 0.1339129210, -0.6126257181, -0.8228283525, -1.4902653694, 1.4961396456, -0.9724028707, 1.3462210894, -0.4674931765, -0.8624932766, 0.6225191355, -0.6311919689, 0.5684589148, -0.3328117728, 0.4804244936, -0.9681860805, 0.8313510418, 0.4879726768, -0.9196506739, 2.6429357529, 0.5401230454, 2.2904670238, 1.6002677679, -0.1888347864, -0.4122717679, -0.4034591913, -1.8300285339, -0.6958351135, 0.2467660308, 1.5259575844, -0.7727718949, 0.8820565939, -1.2525933981, -0.5863200426, -0.4576405883, 0.3718110919, 0.4573096335, 0.9623417258, 0.7708369493, 0.2431682199, 0.3903649449, 1.5885306597, -0.5109261870, 0.7747282982, -1.8081439734, 0.4113342464, -0.4832495451, 0.0025711823, 1.0400862694, 0.1646438092, 0.8851875663, 1.4737647772, 0.3890939653, 1.1710410118, -0.3265609741, -0.0082098823, -0.5226194263, 1.0429775715, 0.4140913486, -0.5072344542, 0.1546688378, 1.0415683985, -0.0392679907, -0.9489328265, 0.1319117546, -1.9805655479, 0.7687706351, -0.4213275909, -0.4693107307, 0.8756957054, -1.3651628494, 1.9470986128, -0.4802420437, -0.5232509375, 1.0212247372, 0.7086952925, 2.4512298107, -0.2112059891, -0.1204066351, -1.4793159962, -0.3321022689, -0.7214313149, -0.4487670064, -1.7441877127, 1.6606075764, -1.4166034460, -2.8022027016, -1.1884244680, -0.6038395762, -1.1495540142, 1.0983035564, -0.1378391832, 0.0253856052, 0.6103917360, 0.2860125303, 0.9785673022, -1.1094775200, -0.5475180745, 0.6659671664, -2.5345544815, -1.3751845360, 0.5009922385, -0.4802490473, 0.9361075759, 0.8091803193, -1.1980929375, 0.4066570997, 1.2016978264, 0.1474343985, -0.9774648547, 0.8793899417, 0.6354245543, 0.5426107645, 0.7159388661, -2.9946129322, 0.8809375763, 1.8081318140, 0.4366384745, 0.1927289963, 0.6964386702, 0.3382254839, 0.6517812610, 0.0014710003, -0.7667048573, -1.0043227673, -0.9981917143, -1.3730425835, -1.0677419901, 1.7612661123, 0.7540956736, -0.6250274181, -0.3903926909, 0.1125575304, -0.6555450559, 0.0675168559, 0.7776041627, -0.0357427336, 0.3360157311, 0.8864915371, -0.2721317708, 0.2847906053, -0.3093775809, -0.0285288692, -0.3247302771, -0.5288698673, 0.1737118512, 0.5665453076, 0.1463044435, 0.4987269640, -0.7379317880, -1.2037352324, 0.4170435071, 0.6878814101, 0.0498572662, 1.3480358124, 0.9076988101, 2.6805708408, -0.2008085102, -0.9988487959, -0.7401368022, -0.5654978156, 0.4760313928, -2.1580686569, 1.3185510635, -0.2392965853, -0.2467935532, -1.0793431997, -0.1142255515, 0.0132397674, -0.1219449267, 0.3390592635, -0.5896320343, -0.8958157897, 0.5483281016, 0.0986674502, 0.1971810609, 1.0590271950, -1.0225644112, -0.8552404642, 1.2572196722, -1.4828833342, -1.3094121218, 0.8178618550, 0.2382001877, 0.1052321345, -0.0916594118, 0.0312675461, -0.0921121165, 1.3554426432, -0.3981481194, -0.1613735408, 1.7944488525, 0.0275097024, 2.2320163250, -0.1049797013, 1.3674149513, -1.6553440094, 0.1536444575, -1.5844736099, 0.8444542885, -1.2128678560, 0.2837695479, -0.2821958661, -1.1582032442, -1.6193599701, -0.5110404491, 1.7406294346, -0.2934850454, 0.9172215462, -0.0570428669, 0.8767267466, -1.8269113302, -0.4031883180, 0.9494055510, -0.1632549465, -0.0864552855, -0.4304619133, 1.1493793726, 0.2975143492, 0.0440222770, 0.6430545449, 0.5882249475, 0.2125870436, 1.5470315218, -0.0602875352, 0.2780810595, -0.6429525614, 0.1501152217, 1.5877615213, -0.6432576180, -1.1335928440, 0.9967596531, -0.1487661451, 0.0960042030, -0.0451133028, 0.0791217238, 0.8505306840, -0.8391242027, -1.0117740631, 0.0849681348, -1.6064397097, -1.3730535507, 1.8666831255, 0.7574683428, -0.0100564715, 1.2380069494, -1.0405992270, -0.3156031370, 0.6234536171, 0.8906716704, 0.5129168630, -2.5412387848, -0.9680821300, 0.4770680964, -0.3559514880, 2.5402317047, 0.9265583158, 0.5580818653, -1.1169495583, -0.0352967381, 0.2412039638, 1.1277836561, 0.8811311126, 1.0329891443, -0.9239119887, 1.4121516943, -1.3804306984, -0.5359145403, 0.4307711422, -0.1498915851, -1.0060368776, -0.8215498328, -1.5482543707, 0.5319746137, 1.2605688572, -0.1003935039, -0.4003488123, -1.4723229408, 0.9132019281, 2.2113044262, -1.7974557877, -1.0634329319, -0.6795930266, -0.5643178821, 0.2273459435, 1.6142495871, 1.0085972548, 0.5275973678, -0.7239286900, -1.1196281910, -0.7967752814, 1.5480668545, -0.0617433004, -0.4468362629, -0.1837557256, 0.8246182203, -1.3128496408, 1.4148740768, 0.1564762592, -0.2163439840, 0.4428461194, 0.2183970660, -0.3441964686, -0.2527106702, -0.8688625693, 0.6563907266, -0.5319938064, -0.9562584162, 0.1658635288, 1.3291412592, -0.0483446233, -0.6081012487, 0.4038960338, 1.9367125034, -1.4519054890, 0.3822027743, 0.2050866187, 1.1615338326, 0.9909091592, -0.1867091060, -1.6845172644, 0.8065637946, -0.8351926804, -0.9467403889, 1.1483505964, -0.9108504057, 1.4028447866, 0.3358447254, 0.3191184103, 0.3072647750, -1.6384236813, -1.7763886452, 0.2155530602, 0.5680073500, 0.0826110318, -0.8215345144, 0.0189221036, -0.0820341557, -0.9571580887, 1.0139721632, -1.7302761078, 0.5887424350, 0.3843234181, 1.0097118616, -1.0053118467, 0.1014071479, 2.1711649895, 0.6620742679, 0.1005812064, 0.5391612649, 0.0861768425, 2.1908979416, 0.9836362004, -0.0856149569, 0.2523314357, -0.3907980025, 1.2098500729, -1.4061048031, -1.6047384739, 1.4587147236, 2.1531198025, 0.4683049023, 0.1127379388, 0.6572676897, -0.6470535398, 0.1712435484, 0.0389087051, 0.6265642643, -1.5579985380, -0.5070347786, 0.8449956179, -0.6755938530, -0.9933613539, 2.0420720577, 0.0381180011, -0.5789181590, -1.6923704147, 0.7293463349, 0.6991361380, -0.2987596095, -1.1022301912, -0.0245494228, -0.8358560801, -0.9420936108, -0.1032127514, -1.0513904095, 0.2466489524, 0.6079925299, -0.8396324515, -1.3682451248, 1.5612796545, -0.9402702451, -0.6599426866, 0.2130171657, 0.5993693471, -0.2563169003, 0.4607943296, -0.4009861648, -0.9711706638, 1.4263168573, 2.4884417057, 1.6959695816, 0.1418066323, 1.8334354162, 0.3557035029, -0.4772862792, 0.4663795829, -0.0943925083, -0.9831181765, -0.8983219862, 0.8020517230, -1.8465319872, 0.6041367650, -1.6295835972, -2.1211764812, -1.8388465643, 1.9667639732, -0.1962339580, 0.0865831822, 1.4192550182, 0.9341797233, -1.3915052414, 0.8690063357, 0.1841812581, -0.3416780829, 0.0242909137, 1.2798119783, -0.8859664798, 0.4008856714, -0.0096572367, -1.7971645594, -0.8022531867, 0.1932135522, 1.2973420620, 1.0013309717, 0.5972124934, -0.8152756691, 1.8012139797, 0.2152404636, -1.0063655376, -0.1829049736, 0.8962484002, 0.0076174983, 0.8868646622, 1.1036939621, 0.4005306959, -0.8577026129, 0.1354546696, 0.0451658554, 1.8593463898, -1.6263219118, -0.1348224580, -0.5840935707, 0.3351056278, -2.4375643730, 1.1149245501, 0.0137484875, -1.8447011709, -0.3611131310, 0.6089623570, -1.5914478302, 0.0032222164, -1.0574736595, -0.5559850335, 0.0267383829, 0.1834502518, -0.4707424939, 0.2727963924, 0.8179776073, -0.2789142728, 1.4315677881, 1.4622141123, -0.4287020564, -0.6378405690, -1.6641730070, -0.1265693307, -0.3634377718, 0.7790512443, -1.5096615553, -0.2773914039, 0.9687443972, -0.7303571105, -0.7623615265, -1.4469403028, 2.6205737591, -0.7474731803, -1.3003468513, -0.8038504124, -0.7742950916, -0.2693897784, 0.8253722191, -0.2983231544, -0.9228233099, -1.4513385296, 0.0218573585, 0.0425390750, 1.5309323072, 0.0924477354, -0.0990083143, -1.0506538153, -0.3059525788, -0.4384744465, -0.3701641560, -0.9592553973, 0.5383296013, -0.1424454153, -0.2003534734, -1.7140461206, 0.4936440885, 0.4870153368, -0.8391293883, 0.9901213646, -1.3647582531, -0.0218699090, -0.2712073326, -1.3171747923, 0.1897026151, 1.7025702000, 0.0676342323, -0.4630217552, 0.4470241666, 0.1057199985, 0.0277621318, -0.4255422056, 1.4219756126, 0.4563633502, -0.5286706686, -0.1080038399, -0.7408667207, -0.6082911491, -0.6407257318, -1.1343115568, 0.7772769928, -0.2910414636, 0.5541275740, -0.6701259017, -0.0603624955, -0.7110406160, 0.7196681499, -0.2484192997, -0.7308735847, -1.6417032480, 0.2756665349, -0.7083850503, -0.0157792177, -0.4917300940, 0.9541895986, 0.5441447496, 0.4472121000, -0.6161211133, 0.4662900567, 1.7148315907, -0.8321860433, 0.1723391414, -1.6492170095, 1.3985620737, -0.3979120851, 0.7825788856, -1.7232282162, 1.7975393534, -0.3568715155, 0.5456573367, 0.1508181989, -0.2554707825, 1.6857923269, -1.6480462551, 0.2987136543, 0.9106456637, -0.0298561212, -0.1181707829, -0.1426877081, -1.2276364565, 0.0381273851, 0.5127175450, 0.0685992241, -0.2722761035, -0.4897250235, -0.2792966664, 1.2577441931, -2.0866348743, 0.0400714576, -0.3277549148, 1.4558079243, 0.0554922260, 1.4849256277, -2.1238899231, 0.4595848918, 0.2800578475, 1.3905339241, -1.6413486004, -0.1550358087, 0.0660602599, -0.4957954884, 1.2165777683, -0.3386821747, 2.0347626209, 1.0541778803, 0.9508336782, 0.5592989922, -1.0636955500, -0.4310963452, 0.5727513433, 0.6775570512, 1.3071838617, -0.4674410224, -0.8601533771, 0.8591042161, -0.8096265793, 0.8733118176, 1.1997361183, 0.4561530352, -0.3575790226, 0.0410822257, 0.5934659243, 0.0101855183, 2.1982963085, -0.9906709194, -1.0026686192, -0.9768953919, -0.5895799398, -2.1789314747, -0.6296504140, -0.6532847285, 0.0785140246, 0.4178005755, -1.2402163744, 0.9000542164, 1.8022422791, -0.2082851082, 1.5743712187, 0.1989894956, 1.9887318611, 1.1172834635, -1.5639046431, 0.0186273698, 1.0543249846, 0.0305465814, -0.0368835293, 1.2697647810, -0.7098541856, 0.0175156128, 0.3236257732, -0.3337909579, -0.0201291032, 0.7750232816, 0.4328376353, -0.8087175488, -1.1041239500, -0.7891021967, 0.0012484558, -0.1599397808, -0.8319575191, -0.5981504321, -1.5200393200, 0.4178537130, -0.0400187261, -1.2597873211, 0.0286205038, 1.3426220417, -0.7399358749, 1.3151376247, -0.3234574795, 0.1978281736, 0.0977508053, 1.4015234709, 0.1584338397, -1.1419013739, -1.3109704256, -1.5329210758, -1.7119702101, 0.0461350605, -0.9583745003, -0.0808116123, -0.7038590312, -0.7707843184, -0.4808453321, 0.7035855651, 0.9291451573, 0.3711725473, -0.9898225665, 0.6436312795, 0.6888966560, 0.2746472061, -0.6036204100, 0.7088595629, 0.4228185713, -3.1168565750, 0.6444520354, -1.9137426615, 0.6635615826, -0.1540724039, 1.1936116219, -0.0981612131, -0.8866142631, -0.1473536640, 1.0598063469, 0.0262466185, -0.1143351570, 0.7435535192, 0.2103593647, -0.0059274058, 1.3660600185, 1.5551140308, 0.6133262515, -0.2859591544, 1.4969110489, 1.1831195354, 0.7188971639, -1.2160766125, 0.1406719089, -0.7436721921, -0.1590122581, 0.2400569320, 0.1001594067, -0.4751751125, 1.2729537487};

#endif

#endif
