//Numpy array shape [64, 32]
//Min -3.740100622177
//Max 3.801660299301
//Number of zeros 0

#ifndef W4_H_
#define W4_H_

#ifndef __SYNTHESIS__
dense_1_weight_t w4[2048];
#else
dense_1_weight_t w4[2048] = {-0.0636614859, -1.5799305439, -2.8320119381, -1.0834267139, -0.1306203902, 1.4006890059, -0.6516562104, 0.5048154593, 1.3031809330, 0.1285363138, -0.1424478740, -1.3087635040, -1.2024753094, 0.4160996377, -0.2009075284, 0.1225313172, -0.0472777151, 0.6641440392, -0.7846873999, -0.3355806470, 1.8961821795, -0.7997861505, -0.2815754414, -0.5893867016, 0.4447813630, 1.0223922729, -0.4982116222, -0.4314143360, -0.2789815962, 0.5298337936, -0.7393953204, -0.3759599626, -2.3721938133, -1.3817449808, -0.1124437526, 0.8978641629, 0.2950757742, -1.0987684727, -1.4002561569, 0.1746800989, -1.6528036594, 1.0659267902, 0.0638961941, -1.6073201895, -0.9659538865, -0.7243112922, -0.7731925249, -1.4899330139, -0.8746625185, -0.6844015718, -0.7112857699, 1.1279566288, 0.1048278064, -0.9932572246, -0.3346216083, -0.8795570731, -0.3000066578, 0.8755091429, 0.2522707880, 2.2856011391, 0.3759274185, -0.9135944843, 0.8097407222, 1.0799312592, 1.0941669941, -1.0942409039, -0.1476374120, 1.1318119764, -1.6847289801, -0.4994167686, -1.4269376993, -0.9325702190, -1.0124571323, 1.2505698204, -0.2345380336, -0.8633555770, -1.0356057882, 0.1416671723, -0.0111356275, 1.3440743685, 0.5000166893, -1.4317977428, -0.6289806962, 1.0700725317, -0.6210827231, 1.7345721722, -1.0982894897, 0.5726133585, -0.8612155318, -0.5095951557, 1.0985816717, -0.1270671636, 0.8134522438, 0.4732905924, 0.7538656592, -0.8881881833, -0.2215743959, 0.4242526293, -0.8490728736, 1.6295000315, -0.7772280574, -0.3000035882, -1.0065590143, -2.1433081627, 1.7969185114, -0.2043389380, -0.4479148388, -0.1987150609, 1.4198639393, -0.9651066065, 0.6795678735, -0.4237882495, -0.5966708660, 0.5670582056, 0.9882405996, -0.5139029622, -0.7688491344, -1.1690957546, 1.1035038233, -0.5752559900, -1.8491307497, 1.4099521637, -1.3698594570, 0.7794605494, 0.1834286451, 0.2879154384, -0.5843752623, 0.3655914664, -1.6677799225, 0.5880377293, 1.5570100546, 0.8840271831, -2.0195400715, -0.9842090011, -0.1877949238, 0.4869373143, -0.1066526771, -0.4932143986, 0.5953003168, 1.1641517878, -0.2322940081, 0.7289298773, -2.5790507793, -0.9375093579, -0.3212589324, -0.4885662198, 0.3327982128, 1.0137505531, 0.5066690445, -0.6222254634, -1.5227681398, 0.5569640994, -1.8381767273, 0.6530373096, -0.1884490848, -1.1758350134, 0.2872573137, -0.0028761027, -0.0365972929, -0.0842233002, 0.4195241034, 0.9244340062, 0.4966152012, 1.0121332407, -0.0441397205, 1.6184593439, 0.5711098313, -0.5436940193, -1.0938950777, 0.2057968080, -1.3065215349, -0.9733759761, 0.2390870750, -0.6078874469, -0.9333162308, -0.0344750471, 0.0726778954, -0.2058340311, -0.3775469065, 0.8546427488, 0.3424273431, -0.2234261185, 2.4643218517, 0.1938317418, 1.1320050955, -0.5609809756, -1.3629409075, -0.7917565107, -0.2680097818, -0.4966081977, 1.3363862038, -0.1200411245, 0.4614688754, -0.0464811549, -0.4335543215, 0.0379960127, 1.7140514851, -0.7679485679, 0.7669904232, -1.0260072947, -0.4596264362, 0.0035832059, 0.3263750970, 1.4831286669, -0.0500826426, -0.8436155915, 0.6500419974, -0.3641698062, 0.2386815697, -0.1162224412, -1.9434568882, 0.5082991719, 0.5833680034, 0.9266047478, 1.8004627228, -1.1951037645, 0.5165074468, 0.4092949927, -0.4190819860, 0.3971062303, 0.4996469617, -1.2186838388, 0.2462227643, -0.9179843068, -0.6518564820, -1.7747448683, -0.4733609259, -0.2035706788, 0.5498568416, 0.0008999266, -1.5422881842, 0.8621480465, -0.1185866222, 0.4883705974, 0.9659361243, 1.4226047993, 1.9612269402, -0.0722387582, 0.3111244440, -1.0783610344, 1.0616002083, -1.1848874092, -1.8052517176, 0.8303859830, -0.5216965079, 0.7776072621, 0.4080746472, -1.6300026178, -2.7196793556, -1.0966017246, 0.0164914876, -1.2217763662, -0.6527614594, -1.4589407444, 0.1698779613, 0.0908259302, -0.4813926220, 1.3970652819, 1.4977149963, 0.5652672052, -1.7997711897, -1.1046901941, 0.4071303308, -0.6285575628, -0.4870914221, 0.8989673853, 0.5108748078, 1.3141543865, -0.4292092919, 1.3752254248, -0.5541312695, 1.4994914532, 0.1058346406, -0.8605097532, -1.6312195063, -0.3014723063, -0.2562327087, 0.8576619029, -0.1105905026, -0.4324319661, 1.0770374537, -0.2248265594, -0.5762417912, 0.5746089220, -0.4898282290, 0.6588021517, -0.5969170928, -0.2229591757, 0.1521769762, -0.3741263151, -0.0134514691, 0.8154719472, 0.4106017947, 0.4809698462, -0.6354304552, 0.8528297544, 0.6695623398, 1.0044192076, -0.7263658047, -0.1724586040, 0.6335338950, -0.6088151336, -0.2261224687, 1.9258056879, 1.9517610073, 1.2399405241, 0.9385851622, -1.0192511082, 0.5125622153, -0.3591165841, -1.0585719347, -0.5090058446, 0.1156650707, -0.5473555923, -0.5507994294, 0.7920414805, 0.1441064924, 0.2334580868, 0.1118723974, -0.6757031679, -1.3705719709, 0.3105646968, -0.5070366263, -2.0107822418, -0.3925672472, -1.0922179222, 0.6986502409, 0.5216252208, 0.4968931377, -0.6650416255, 0.7315515876, 0.3196497858, -0.4098545313, -0.4533374310, 0.8927081823, -0.4736040533, 0.3036564589, 1.0339570045, 1.9093426466, 1.6638730764, 0.9008227587, -1.5059113503, -0.6890484095, -0.5480871797, 1.6531498432, -0.6993179321, 0.3861663640, 0.1008670628, -0.9351271987, 0.3818240166, 0.3982960880, -1.2557748556, 1.2228775024, -2.0865099430, -0.5907571316, 0.9719703197, -1.1932578087, 0.3502659202, -1.2963603735, -0.0930241421, -2.3137731552, -0.8425716758, -1.5429214239, -0.4017637372, -0.4152314067, -0.6736641526, 0.7979131937, -0.8868796229, 0.6343866587, 1.6292757988, 0.1390641481, -0.8576701880, -1.2493385077, -0.7097851038, 0.7046427131, 0.1555907279, 0.9367952347, 0.7703309059, 0.1408106536, 0.4734882712, 1.8552461863, 1.4156562090, -0.3027460277, 0.9896794558, 0.5858508348, 1.1363880634, 0.6716165543, -0.9741674066, -1.6196845770, 0.5726270080, 1.9026181698, -0.7756640911, -0.1880897433, -1.0357477665, 1.1778295040, -2.3051669598, -2.2636601925, 0.3750199080, -0.0823436454, -0.4796230197, -0.3010948002, 0.5369879007, -0.4138039947, -1.0969250202, -0.9273629189, 0.8883388638, -0.5247419477, -1.3852776289, 0.1021783277, 0.5049947500, 1.3289607763, 0.2179033905, -0.6597112417, 0.4740078747, 0.7271748781, -0.0389053077, -0.0445993915, 0.2601329088, -0.0698564947, 0.2501139045, -1.0219132900, -1.1504377127, -0.8361113667, 0.6422109604, 0.2587975562, 1.0402389765, -0.1866909266, -1.1436413527, 1.1445535421, -0.0187670551, 1.2834550142, 0.5979464650, 2.1886186600, -0.2197729796, 0.9007239342, 0.8913640976, -0.5551263690, -0.1724823117, -1.4617383480, -1.5487961769, 0.1265687943, 0.7930070758, 0.6380240321, 0.3400245905, 0.8630171418, -0.5896977782, -0.2725327611, 0.7375215292, 0.4331187308, -0.2101888210, 1.3207943439, -1.2920012474, -0.5186786652, -0.2833977640, 0.8165348768, 0.0023851979, -1.2614917755, 0.5140041709, 1.0875463486, 0.7393045425, 0.6191549301, -1.8743134737, -0.8998864889, 0.4820806086, -0.0548881851, 0.5225576162, -1.2663426399, -0.0614947639, -1.3897809982, -1.9536786079, 0.2957790792, 0.8425887823, 0.2456164211, -0.0329964794, -1.5620143414, 1.0061070919, -0.0440448970, 1.9595620632, 0.9423143268, -2.0051255226, 0.7550497055, -1.3965352774, -0.7594954967, -0.2507566810, -0.0940624475, 0.3975652158, -1.0228550434, -1.1506919861, 0.6006051898, -0.0132502681, 0.1743730456, -2.1936833858, -0.1771373898, -0.8907291889, -0.9206264019, 0.9219347835, -1.0956711769, -1.0928965807, -0.3310106099, 0.4502888322, -0.8840147257, 1.2341440916, 1.4498475790, -0.8814470768, -0.2450817525, -0.7786754966, -1.6853821278, 0.3030110598, 0.7335948944, 2.0118641853, -0.8974094987, 1.3362350464, 1.3423537016, 0.1978533119, 0.6021634936, 0.8732730746, 1.9740999937, 0.4778085649, -0.0601378866, -0.8661687970, 0.3053207695, 1.0241649151, 0.2446103543, -0.7799232602, 0.0890762061, -0.1291534752, 0.2647387683, -1.6618484259, 0.5507886410, 0.5954231620, 0.4448534250, -0.0037628172, -1.8059362173, -0.0193227921, 1.0607149601, -0.8601288795, -1.9892694950, -1.5405579805, 0.3140257001, 0.3728760183, 0.8862931728, -0.0552589968, -1.5003284216, -0.8185041547, 0.8188393712, 0.1404959112, 0.6498296261, 0.4347887933, -0.2049605548, -0.1740068346, 1.8571022749, 0.4146742523, -0.1285875440, 0.4554199874, 0.2229058146, -2.1573562622, 0.6500844955, 1.8209393024, -0.7802798748, 1.4540357590, -0.2568697035, 0.2934713960, 1.0703600645, -0.7200014591, 1.2424938679, -1.2142173052, -0.8751547337, -0.5935203433, 0.6620053649, -0.3408744037, -1.5199744701, -0.2165328711, -0.7842214108, 0.7312936187, -0.3432350457, 0.0707740784, -0.4054724574, 0.4339389801, -0.1835907698, 0.3251987100, -2.5933885574, 0.0972508788, 0.4139136672, -0.1992800534, 0.6693924665, 0.7386070490, 1.3042138815, 0.1048116088, -1.9138007164, -2.2854993343, -1.6018409729, -0.0379070602, -0.1573052853, 0.2762398422, -0.6252459288, -0.7364911437, 0.5550479293, 0.6559244394, -0.2566501498, -0.0384766571, 0.4043143392, 0.5043435693, -1.1439807415, -0.7195738554, -1.2305459976, -0.5069066286, 0.8123335838, 0.5462718606, -1.0980979204, 0.5122667551, 0.0858431086, -0.4939267039, -1.4064596891, -0.1748233736, 0.6799439788, -2.1630976200, -0.3961232007, 2.2542836666, 0.6726367474, 0.2598325014, -0.7371851802, -0.6783298254, -0.0832883939, 1.6028636694, 0.4655891955, -0.8721584082, 1.1767870188, -0.2925941944, 1.6973464489, -0.5666030049, -1.0032657385, 0.1746295840, 0.9823269844, 1.0374448299, 0.1591917723, -0.9880967140, -0.5053406954, -2.0182819366, -0.9131215215, -0.1784568131, 0.3890021443, -0.3394543231, -0.0569790564, -0.3961854577, 0.7510253191, -0.8991129398, 0.8375478983, 1.9608807564, 0.4727896452, -0.5270916224, -0.5362701416, 1.2098371983, -1.1265894175, -0.9538044333, -1.1644484997, -1.2785137892, -1.0448163748, 0.7899049520, 1.1022825241, -0.6970731020, 0.2073340416, 0.7591567039, 0.1005642042, -0.9549427629, -1.4704017639, 1.0104275942, 0.4961794019, 0.5769559145, -1.1076469421, 0.2349771857, 0.6289995909, 0.3140338361, -0.7450231910, 1.0122605562, -1.5276319981, 0.9287419319, 1.0810559988, 1.5723303556, -0.3424921930, -0.9994300008, 0.7938803434, -0.6992152929, 0.0439955108, -0.3174622059, -0.9020719528, 0.3209994733, -1.3920159340, 0.5922057033, -0.9669311047, -1.7317312956, -0.0501074605, 0.4316338599, 0.5769345760, 0.8183537126, -2.3536403179, -1.0051444769, 0.1066522971, 1.5190032721, 0.7837445140, 1.9013400078, -0.5249394178, 0.2744169831, -1.0999708176, -0.4043522179, -0.7352957129, -0.6339886785, -0.3934491277, 0.0027175399, 0.0222126637, 0.5434534550, 0.1399884671, -0.3440456390, -0.5225785375, -0.3071317077, -0.4490371346, 0.4909710586, 0.8655251861, 1.2740445137, -0.7977027893, 0.4693722129, -1.3946796656, 0.3731747270, 1.0826722383, -0.1495895088, 1.0726360083, -1.1385679245, -0.8886452913, -0.1358098388, 1.0222103596, -0.4174294472, -0.4535531104, -0.9916283488, 0.2028810382, 1.2466951609, 0.7006801367, 0.6966506839, -0.2069744766, -0.5633093715, 0.6772459149, -0.0319110751, -0.1736082286, 0.8982406259, -0.1977874488, -0.8377762437, 0.9091885090, 0.0807198882, -1.0370293856, -1.1129058599, 0.0954118744, 2.3374097347, -0.3928205967, -0.3362738490, 1.5237711668, -0.0572811998, -1.4484668970, -1.5727964640, 1.2266639471, 0.6663545370, 0.8261256814, -0.0577565581, -0.7267120481, -0.2171631157, 0.1360312104, -0.8383111358, 0.5614498854, -1.2595961094, -0.3327587545, -0.2040078789, -0.6910198331, -2.2055053711, 0.4478696585, -0.7557507753, 1.3257079124, -0.3419822752, -0.5413596034, 0.0915219486, 1.0534397364, -0.5634076595, 1.0147377253, 1.4403036833, 0.9903228283, 1.6264314651, 1.2926460505, 1.5148823261, 1.6043263674, 0.2080695331, -0.4292238951, -2.2622437477, -1.3227331638, -0.4482828081, -0.3817350864, -0.1527944654, -1.0007604361, -1.5957776308, -0.1302231699, -0.1894179285, -0.8075540662, -0.7421521544, -0.9401565790, -0.3965237439, -0.8563027978, 1.2598752975, 0.2409967333, -0.9723179340, -0.2804477811, -1.1802855730, 1.0121682882, 1.3841867447, 1.2520020008, -1.1446926594, -0.0912670195, -0.4015706778, 0.5620130897, -1.0079097748, -0.6758916974, -0.4132170379, 0.1532884687, 0.6941286922, -0.3287276924, 0.6639650464, 0.8220763803, -0.2132152319, -1.2456581593, -1.1711903811, 0.5917269588, -0.4762244225, -1.7126293182, 0.6129523516, 0.1295545250, -1.4059671164, 1.1794199944, 0.8366360068, 0.1387452483, -1.2743194103, -1.4023305178, -0.3070684969, -1.7139153481, 0.4050802588, -1.4108233452, 0.1649127305, -0.2881314456, 0.7117852569, -0.9379475713, 0.2737294436, -1.3948402405, 0.7955495715, -0.1149617657, 0.4958506823, -1.3205252886, 0.4990842640, 0.3062033951, 0.3636978865, 0.3126339614, -0.1934638768, 1.2412992716, -0.1558979899, -0.7391691804, -0.0587261915, -0.9505179524, -0.4639964104, -0.1772466153, -0.3795541227, 0.1993970722, 1.9457614422, 0.5709498525, 1.0723006725, -0.5037094355, -0.5870162845, -0.3781780601, 0.8528891206, -2.1481184959, -1.0331647396, 0.1023358479, -0.2240923643, 1.9677296877, 0.4476832151, -0.6621914506, -1.5776070356, -0.3405600488, -1.3032200336, 0.4667506516, 0.1611063182, 0.3200319409, 2.0791766644, -0.9074659944, -0.1924042106, -1.2125157118, -0.0805985183, 1.5932736397, 0.5687224269, -0.1144870445, 0.2516302466, -1.2108556032, -0.3937337101, 0.0852525756, 0.0994219854, -1.5306162834, 0.3276231885, 0.2791965008, -0.3770512044, 0.0041749990, -1.4834915400, -1.4797955751, 0.1346872598, -0.6677231789, -0.0115555199, 0.8394906521, -0.1739299297, -2.8106679916, -0.1506536454, -0.4810440242, -0.2346943617, 0.8997308016, -1.5785301924, 0.2439566255, 1.5703039169, -0.6259431243, 0.4723278880, 0.9663057923, 0.2102314383, -0.6850969791, -0.7095209956, 0.7438001633, 0.5921490788, -0.7864683867, -1.1764731407, -1.2808066607, 1.6616518497, -0.0679451227, 2.3602285385, 0.5555456281, 0.4395223260, 0.3062724769, 0.9991498590, -0.9660632014, 2.1600131989, -0.1003017053, -0.7034000754, 0.3025610149, 1.0923389196, -1.0075548887, 0.5668693781, -0.7164441347, -0.5062735081, -0.4894824326, 0.7635414600, -1.1090726852, 0.1926161051, -0.3434178531, -0.8472101688, -1.2135236263, -1.2028883696, -1.6337959766, 0.8961672187, -0.2416531593, 0.1586519331, 1.1781893969, -1.2201172113, -0.9415456653, 0.2547155321, -1.8240795135, -0.5787085295, -0.9248930812, 0.3295224309, -0.4258158803, 2.0081493855, 0.9378913641, -0.8532384634, -0.3873134255, -0.3475845158, 3.3065743446, -1.5101996660, 0.2035396993, -2.0844321251, -0.0069374414, 1.9098905325, -0.4084554315, 1.1045544147, -0.0661152229, -0.4224987030, -0.2516563535, -0.5869026184, -0.6260582805, -1.3301943541, 1.5068007708, -0.3930763900, 0.2937743068, -0.8765318394, 1.1169905663, -0.2735557854, -0.0910326689, -1.8289766312, 0.3959762156, 1.8115056753, -0.8690775633, -0.4582291543, -1.1383239031, 0.1291621774, 0.0640241951, 0.7050811052, 0.5514735579, -0.8125160336, 0.2249480486, -0.3283011019, -1.0910329819, -0.1268558800, 3.8016602993, 2.3151705265, 0.1398265958, 1.7388571501, -0.0453833640, -0.0531383380, -1.9495717287, -0.9601055384, -0.7834992409, 0.1075190306, 0.0139845349, -0.5789423585, -0.5888131857, -0.1661531329, -1.3814116716, -0.6126385331, -0.3812898695, -1.2489489317, -0.3302378953, -0.8348071575, 1.2353824377, -0.2438037992, -0.1895456612, 0.4280281067, 0.5569683313, -1.7362418175, -0.3767841160, -0.9090323448, -0.1451702416, -0.5363325477, 0.1570694596, -0.9804592729, -0.5677672625, -0.5911596417, 1.0825914145, 0.3680036664, 0.3688887060, -0.2863182724, -0.3847178519, 0.5610029101, 0.7774339318, 0.0151467854, 1.1416479349, 1.2741550207, -1.6646980047, 0.4303788841, -0.0426019281, 0.3882888258, 1.1159765720, -0.9205381870, -1.6202740669, 1.1061915159, -0.9984846711, -0.6862195134, 0.2046208978, -0.6861017942, -1.5922106504, 0.0341897681, -0.7814846635, 0.5978598595, -0.5060765743, -0.6884461641, -0.2100005448, 1.0521534681, 0.9079040885, -1.0932261944, 2.7997076511, -0.3257763386, -1.1524157524, 0.8882319927, -0.3616724610, 2.1537194252, 0.8474083543, -0.1987198442, 1.5753068924, 0.8491151929, -1.2288951874, 0.8883941174, -0.5164874196, -0.0833262876, 0.1310544461, -0.8790960312, -1.3333423138, 0.3677840233, -1.3882335424, -2.5752027035, -0.8361055851, 0.3310924172, -0.2698811293, 1.2671309710, 0.1837534904, -0.7663096786, -0.4395835400, -1.4365413189, 1.0857971907, -1.3811000586, -0.9204076529, -0.1602862179, 0.0023532645, -1.5026503801, -0.9055358171, 0.2650406063, 1.1297233105, 0.3490035534, -0.0258097611, -1.5624086857, -0.6173423529, 0.5214942694, 1.0809466839, 0.8893759251, 0.1380716413, 1.2046004534, 2.8814606667, -0.5938619375, -0.7631158233, 1.5184829235, 0.2354645282, 0.1123076901, 0.3923743367, -0.6544864774, -1.0347952843, -0.7771475315, 1.2459462881, -1.4366406202, 0.4986546338, -0.5576874614, -0.3533668816, 0.7429509759, 0.8439888954, 0.3429765403, -1.8731197119, 1.5709646940, 1.3101965189, 0.0914368331, 0.0102578169, 1.8014491796, 0.9472242594, -0.0292944033, -0.2923386693, -0.1935371161, 1.1772320271, 1.0399917364, -1.6134229898, 0.4646424055, 0.8641213179, -1.5064631701, -0.0029647513, -1.7770435810, 0.1294928342, -2.0832345486, -0.6817455292, -0.6110659242, -0.7088498473, 1.4515280724, 0.5355105400, -0.3995688558, -0.9330778122, -0.2387763113, -1.0291129351, 0.9730799794, 1.9967659712, 1.0531998873, 0.3316903412, -0.1656287760, -0.4051062763, 1.7452845573, -0.5759356022, 1.5610985756, -1.1315392256, -0.2962316573, -1.7140566111, 0.1592341959, -1.2637276649, 1.6650494337, 0.4122722745, 0.5373967290, 0.2826784551, -1.0925408602, 0.1241182908, 1.8370807171, 0.0085549261, -1.0170161724, -1.8523426056, -0.7133269906, -1.7622288465, 0.8305173516, 0.7811672688, -0.8756818175, 0.6139813066, -0.5764546394, -0.0456142835, 0.3719555438, -0.4439600110, 0.4182033539, -1.6857280731, 0.1174749881, -0.0349520221, -2.0463931561, -1.8096902370, -1.8595236540, 0.4143068194, 0.1239596233, 0.2739575803, -1.3263784647, 1.1389738321, 0.9828411937, -0.7669630647, 1.1760603189, -0.2509224117, -1.7762050629, -1.6326947212, 0.7337234616, -0.1040488109, 0.8812249303, -0.0883731246, 0.2676708996, 2.1235263348, 1.3968490362, -0.4328272641, 0.3749687374, 0.4944454432, 0.7613911629, 0.0710088089, -0.4935318530, -0.0036228173, -0.4802871048, 1.6833672523, 1.2407262325, -0.2036150247, 0.4282922745, -0.1654592603, 1.1932411194, 1.0488804579, 0.5686108470, 0.8712642789, 0.6605708003, 1.1740618944, 0.5311313868, 0.1519005299, -0.5772256255, -1.5717507601, -0.0278483797, -0.7410555482, 0.0600090660, 1.1404883862, 0.1728246808, -0.4150016606, -0.8531286120, -1.4301352501, 1.3328052759, -1.7766909599, -0.9347830415, -2.3132019043, -0.3161415756, -0.3422845602, -0.4042944312, -0.0631299019, -0.8212651014, -0.9136556387, 1.8178263903, -0.3340629339, 0.9076586366, -0.8367710710, 1.6127285957, 1.5141820908, 0.2310186774, -1.0995316505, 0.0870013833, 0.0473044999, 0.2396239191, -0.9782206416, -1.5230001211, 0.1623630375, -0.0102913165, 0.0020750219, 1.0268006325, -1.4751604795, 1.0106936693, -0.7432275414, -0.3952220678, -0.8257793784, 0.0896198601, -1.9058178663, -0.5680857301, -0.5157565475, 1.2639302015, 0.1506981403, 0.6955183148, 0.0059388145, -1.0489003658, 0.9072048664, -0.8454413414, -0.5262433290, 0.1820997745, 0.9455388188, -0.2013845444, 1.5105247498, -0.5714784265, 0.6655892730, 0.0036163009, 1.5466718674, 0.2144060135, -1.8773127794, 1.0883351564, -0.0815485120, -0.5530619025, 1.2229647636, -0.3313086331, 0.5999867320, -0.7683833241, -0.8361301422, 1.8105818033, -0.7870327234, -0.5847709179, -1.7083207369, 1.6299822330, 0.3979983330, 0.2377796322, 0.9751384258, -1.3293365240, -0.5410467982, -0.0914377347, -1.5484710932, 1.3114271164, -0.0184290502, -0.3232886493, 0.2362254858, -0.7525823116, 0.0451130047, 3.4275386333, 0.6046820283, 1.6683111191, -0.3550831079, -0.7515689731, 0.3097035885, -1.3417049646, -2.3069577217, 0.7315924764, 0.6413381696, 0.8338512182, 0.0281698741, 1.9783726931, -0.0873281881, -0.5539647341, -3.0064988136, -0.0471658669, 0.8318777680, 0.0068611987, 1.1242216825, 2.2948811054, -0.1733502150, 1.2312535048, -1.5858526230, 1.0313191414, 0.0634904802, -0.2213905007, -0.1633989215, -0.1563034654, -0.3088029027, 0.1986729652, -0.1742921323, -1.1557924747, 0.4170538783, -0.6078679562, 1.0479866266, -0.0338269658, 0.1270239502, -2.0492320061, -1.2566801310, 0.9396144152, -0.7338167429, -0.5324376822, -0.2779399753, 1.3637425900, 0.3741379976, 1.3102645874, -0.2677477896, 0.2131762654, -1.2032434940, 1.1780312061, 0.1086482033, 0.0441290997, 0.3383155465, 1.4467921257, -0.2144951075, 1.6630389690, -0.8515225649, 0.4221846163, 2.0092184544, -0.4898147285, 0.2452558577, 0.8775050640, -0.1378996968, -1.5003532171, -1.0559593439, 0.5809326172, 0.8915153146, 0.7845553160, 1.1464320421, 0.0719851926, 0.2082331777, -1.5188686848, 0.3173289597, 0.6126807928, -0.5832113028, 0.6440017223, -1.8158888817, 0.7510995865, 0.3002843261, 2.1106085777, 1.4130855799, 1.5069802999, 0.8173971176, 0.6466156244, -1.1816313267, -0.3350912929, 1.8267284632, -1.4561644793, -0.4502818286, -1.4192340374, 1.4509518147, -0.5657813549, 1.5445343256, -0.4137624800, -0.5041320920, 1.2785291672, 0.9388317466, -2.7162802219, 0.4511407912, 0.6001668572, 0.2098069340, -0.6576579809, 0.0284084454, -0.3980614841, 0.2113230228, -0.2023942620, -0.6219281554, 0.1637704521, 0.8024389148, 0.2890059054, -0.5536423922, 0.3362540305, 1.0697923899, 1.5954041481, 1.2075525522, 0.5373802185, -1.0091240406, -1.3655527830, -0.2023812085, -1.4091848135, -0.7847847342, -0.1701223105, -0.4842104316, -0.3279180527, -1.3280045986, 0.2314667553, 0.9965080619, -0.5481374860, 0.7257553339, 2.6627266407, -0.0918110311, 0.6512100101, 0.1967700869, 0.9696237445, -1.7186498642, -1.0569567680, 0.1434639245, 0.8869625926, 0.1305240244, -1.6645731926, -0.8236132860, -0.7947061062, 0.3889919519, -0.7620389462, -0.6808071136, 1.0847475529, 1.3353163004, -0.4132747948, 0.4249026775, -1.8814837933, 0.1983270645, 1.1899780035, 0.5267816782, 0.1010608450, -0.3886429667, -0.6467919946, -0.1790824085, -1.5514411926, 1.6104589701, 0.5642106533, -0.1024370342, -0.6198047996, -0.0703396201, 0.7977949381, 1.0114479065, -0.9036909342, -0.9735287428, 2.0782299042, 1.1365928650, 0.7085199356, -0.1386462450, 0.9240203500, -1.2732331753, 1.5317684412, -0.0357722230, 0.7908614874, 0.6462177634, -0.1315709054, -0.1753663570, 1.2215831280, 1.0264973640, -1.7722311020, -1.6924057007, -0.9462206364, -0.8935453892, -1.1185258627, 0.2721106410, -0.4637044370, 1.2061246634, 1.4528777599, -0.0286832377, 1.6834579706, 0.0242143106, -0.4347906411, 0.0647857413, 0.9448599815, -1.6144609451, -0.2085993290, 0.2974056602, 0.3630846739, -0.3684363365, 0.4887857437, 0.2921216190, -0.5919080973, 2.1815986633, 0.4395501912, -0.3311833441, -0.5717190504, 1.0294089317, 0.1020597890, 2.5481126308, -0.4359241128, -1.2426069975, -0.0276984591, 0.1750674546, -2.1184506416, -0.3091685176, -0.3684154451, -0.3687635362, -0.6302257180, -1.3431925774, 0.7580380440, -0.5838408470, -1.0237014294, -0.7599342465, -0.4723232388, 0.1086471230, 0.6683390141, -0.9531794786, -0.4792973995, -1.3455077410, -3.3922998905, 0.1557939351, 1.5200035572, 0.5220832825, -0.5070599318, 0.0964791402, -1.1748200655, -0.1222923547, -0.4277092516, -0.8527142406, 0.4056522250, 2.5998671055, 1.6654495001, -0.0720730200, 0.8841146827, 0.8627074361, -0.6475380063, 0.6439040899, -1.4409921169, -0.8052983880, 0.2387528718, -0.4147876501, 1.7564786673, 0.6480404139, -0.3820381165, -0.4705797136, 0.1869706064, -1.0555312634, 0.5956119299, -1.3753019571, 0.6230102181, -0.1645947248, 0.4146135151, -1.0125858784, 0.2449852079, 2.4123477936, -0.4572167397, 0.3173998594, 1.5055669546, 0.7617041469, 0.4318854809, -1.0136892796, -1.2775883675, 0.0534324422, -0.4632358551, -0.0190582145, 0.2056566775, -0.6764278412, 0.4941030145, 1.8585561514, -1.0093410015, -0.4695463479, -0.0496106595, 1.1404596567, -1.1863820553, -1.0651481152, -2.1636610031, -0.4403622150, 0.6801457405, 1.0652247667, 0.3571536541, -0.6009569764, 0.7064716220, 0.2043185979, -1.9207055569, -1.2280948162, 1.5118652582, 0.3222050965, -1.3747943640, 0.8199530840, 1.0614349842, -0.4350340366, 0.6576821208, -3.7401006222, 0.9735767841, 1.1751554012, -1.1247026920, 0.2820853889, -0.3381205499, -0.1025294811, -0.4248804450, -1.3322954178, 1.8904037476, -0.3103108406, 0.1047550440, -1.0094006062, -1.0368671417, 0.4125984013, 0.5263921022, 0.8779241443, 1.1037739515, -0.2102075368, -0.4442030787, 0.7468138337, -0.6374391913, 0.8717585206, 0.3745002747, 1.1550264359, 0.6703916788, -1.0544458628, -0.8656336665, 0.7324852943, 1.9070558548, -1.3228117228, 0.0232116040, 0.2816745639, -1.5257774591, 0.4781250060, -0.0931227952, -2.0965573788, 1.6217279434, -0.8632082343, -1.2825033665, 0.4201416075, 0.5574867725, 0.7364113927, -0.3860033751, -0.0109143378, -0.7308067679, -1.3101973534, 1.0791306496, -0.1027626842, -0.1823142618, -1.9992675781, -0.1783711016, -0.8424944878, -0.1746136546, -0.2192441523, -0.4464647770, 0.9388386607, 0.4470541477, 1.1271544695, -1.3248273134, -0.6489559412, -0.0402808189, -0.4066389799, -0.0792577267, -1.1821033955, -0.7161780596, -1.6415539980, -0.8900255561, 0.6941767335, -0.2142068893, 1.5057532787, -0.5955338478, 0.1190710813, -1.2132523060, 2.6006717682, -0.1786205918, 0.8296298385, 0.4133850336, -0.5838788152, -1.3309012651, 0.1561431289, -0.5567897558, -0.1555043012, 0.6513020396, 0.0782411546, 0.3771162927, 0.1500465721, -1.4672492743, 1.3960622549, 1.1758522987, -1.1361649036, 0.5053006411, -0.6620242596, -0.7469163537, -0.0048416615, 1.7476682663, 1.0579575300, 0.6052213311, -1.1506056786, 2.5544493198, 0.8737310171, -2.3488373756, 0.3994743228, -0.4886947274, 0.4099823534, 0.4006403685, -0.9185190797, 1.8258857727, 0.1997846216, 0.9413478971, 1.3514236212, -0.7381575704, -0.9117684960, 1.1219073534, 1.3928374052, -1.3770185709, 2.0112431049, -0.2355033159, 0.6917845011, 0.5643882155, -0.9713423252, -0.8640481234, -2.0835924149, -1.1511501074, -1.4824759960, 0.0401905142, 1.3694021702, -0.0271449313, 0.3388541639, 0.7780035138, 0.6797094345, -0.3858315051, -1.4633450508, -0.4298055172, 0.0629593581, -0.8716452122, 0.3619607091, -0.2927120924, 0.6218215227, -0.8032394648, -0.9219676852, 1.7740563154, 0.0287562385, 0.5529638529, -1.0984222889, -0.3772644699, 0.6821694970, 1.5656158924, -0.7244850993, -0.8029174209, -0.0226689409, -1.5243951082, -0.0301333070, -0.0647283867, 0.7247491479, 1.4146097898, 0.5698443055, 0.7415510416, 0.0522789508, -0.3597445786, -1.9959769249, -0.8862208128, 0.2172666788, -1.6455937624, 0.2428898215, -0.4008347094, -1.0215598345, -0.4700243175, 0.7287815213, 0.8855010867, -1.9370213747, -0.1494840086, 0.9138846397, -0.2578948736, 0.1088152677, -1.4954109192, -0.4800336659, 1.8287754059, -0.7880680561, -1.4406323433, 0.1494717598, 0.7886293530, 1.1938104630, -0.5177226663, 0.2224755734, 0.5443548560, 0.6492105126, -0.5472027659, 1.7127249241, -0.6872970462, 0.7078721523, -0.0219112355, -0.5872185826, -0.6428512931, -0.5863469243, -0.4468710721, -1.0188856125, 0.6974096894, -0.7035152912, -0.6150208712, 0.4886905849, -0.1079619452, -1.4219036102, -0.9360095263, -0.1965572387, -0.5749878287, 0.7504825592, -0.7644020319, -0.9671270847, -1.0105462074, 0.4066572487, 0.4834717214, -1.6724445820, 0.6220752001, 0.8609732985, -1.6909977198, -0.6904314160, 1.4288923740, 1.0061017275, 0.0247926600, 0.5012493730, 2.1120195389, 0.5027969480, -1.2208088636, 1.3649389744, -0.8709388971, 0.9939022064, 0.6562706828, 0.8895135522, 1.5409330130, -1.4659143686, -0.0695885569, 1.9460494518, 0.9763817191, 0.1771583408, -1.0231730938, 0.1067204922, -0.9118813276, -1.4683669806, 0.5764787197, 0.0653056055, -0.7735127807, 0.3949481845, -0.5038898587, 1.7795591354, -0.0305724442, 1.5770882368, -0.8128020763, 0.6133491397, 1.8436999321, 0.2710909843, 1.1364476681, -1.7383319139, 0.7071347237, 0.0303861313, 0.7650019526, 0.8676652312, -2.2562501431, -0.4436027408, -0.6700232625, 0.1521641910, -1.9405333996, -1.0905086994, 1.0019207001, 0.1768924445, -1.0880144835, -0.2532173693, 1.0982730389, -1.8395668268, -0.2114286125, -0.2296632379, 0.1869794130, 0.5037794709, 1.9103424549, 0.5537812114, -0.5874814391, 1.2579499483, -0.8586683869, 0.4361870885, 1.5714631081, 1.0773148537, 0.8110896945, -2.2315375805, -0.1010025144, -0.5873750448, 1.3248683214, 0.8406484723, 0.2611061931, 0.7944416404, -0.6496164799, 0.6342844963, 0.0950026661, -1.6832067966, 0.3440461457, 0.7071580291, 1.1934145689, 0.5273885131, 1.0067039728, -1.7323273420, -0.3734121621, -0.1425103992, -0.3297423720, -0.0890421197, -0.5773962736, 0.7361654639, -0.9912055731, 0.1251746118, 0.0731527135, 0.1439372301, -0.9477243423, 1.3992298841, -0.2261237204, -1.4388542175, 0.8013010025, -0.0033314459, -0.0969415605, -0.0958714485, 0.3954369724, -0.0532430410, -0.7734996080, -1.4191855192, 0.3034519255, -1.5182067156, 1.1197077036, -0.9538609385, -0.8496140242, -0.9818996787, -1.3630776405, -0.7725985646, -0.2836254537, -2.3276040554, -2.4452273846, -0.7158649564, 0.8833968639, -1.3004398346, -0.0763390809, 1.4305567741, -1.3234086037, -0.4383561611, -0.7431524992, 0.8919675946, 0.4638727605, 0.6176608205, 2.4964170456, 1.6294752359, -0.0990447029, -0.2019919604, -1.4488258362, -1.7141647339, -0.0496415719, -1.2993954420, 0.6253554225, -0.7917193174, -0.5829433799, -1.5526804924, 2.1101534367, 0.7588295341, -0.7099302411, 0.1511470377, 1.3230912685, -0.9278250933, 1.9065986872, -1.0321749449, -0.1773614883, -1.6503783464, -2.5385110378, 1.0100908279, 0.0857020915, -1.7338609695, -1.6406011581, 1.1453614235, -0.1505951136, 1.4314432144, 0.6365867853, -0.0665628463, 0.0323299803, -0.5550736189, 0.0977861062, -0.0609849803, 0.8375166655, -0.1634184420, 0.8235554695, 0.9206323028, 0.1807626039, -1.3129683733, -0.1604766995, -1.9060746431, -1.2066216469, 0.7304183245, 0.4948927760, -0.0032088785, -0.3024331629, -0.7394009233, -0.5128120780, 0.9652515054, 0.4766792655, -1.3712165356, 0.1988528371, 0.1399628371, 1.6486734152, -1.7575517893, -0.7831295133, 0.9736258388, -1.1109322309, 2.3856215477, -1.1789442301, 0.0291221458, 0.5595475435};

#endif

#endif
