//Numpy array shape [32, 8]
//Min -2.892519712448
//Max 2.925249576569
//Number of zeros 0

#ifndef W6_H_
#define W6_H_

#ifndef __SYNTHESIS__
dense_2_weight_t w6[256];
#else
dense_2_weight_t w6[256] = {-0.7043411136, 1.0747038126, -0.6272990704, 1.5339956284, 0.4177254438, 0.2583836317, -1.1504285336, 0.3291141987, 0.0455219783, 0.6320825815, -0.5108472705, -1.4536298513, 0.2752215862, 0.1397872418, 0.2438923568, 1.0056501627, -0.9396406412, -2.3817501068, 0.4750269949, 0.4059125185, -0.4770562947, 0.1705982089, -1.0477807522, -2.1061971188, -1.6929115057, 0.0423611403, 1.3827104568, -0.3895183802, 0.8139379025, -0.5943319798, -0.0554390214, 0.7965607047, 0.1331798881, -0.5416783690, -0.8653023839, -0.0925281271, 1.1821020842, -1.5706546307, 0.8593307734, 0.2836470008, -0.9691122770, -0.0183737297, -0.2040354460, -0.9477403760, -0.5394350886, -1.2562873363, -2.0715236664, 0.1512364447, 1.0444895029, 1.6333490610, -1.1113785505, 2.1473650932, 1.5263067484, 1.4234750271, -0.7856664062, -0.5622516274, -1.9383574724, 0.1911592335, -0.3936029375, 0.1617906839, -0.8345180154, 0.6728704572, 0.3431881070, -1.1441230774, -0.0458879471, 0.2846845090, 2.0084414482, 0.0957808495, -0.9404090047, -0.3162630498, -0.0312234666, -0.1335952878, -1.8414719105, -0.3315768838, -0.6933088899, -0.2605129480, 2.1209623814, -0.8322905898, 1.4379409552, 1.1606181860, 0.6834978461, 0.0031104183, 0.6543934345, -0.4499197900, -0.5464591384, -0.7478616834, 0.2739015818, -0.2097705752, -0.2395850718, 1.4202288389, -0.7047485113, 0.7353649139, -0.5219275951, -1.5921950340, -1.4259504080, -0.4915523827, 0.6296114922, 0.6417863965, -0.2406871468, 0.6184217334, 0.0762631074, -0.2614903152, 0.8547312617, 1.1878938675, 1.0160274506, -0.3068729639, 0.5677075982, -2.1292457581, 0.1950669289, 0.3610023558, 0.1519751996, -0.2222727239, 1.3047732115, -0.0932376981, -0.1395379305, -0.2409367412, 1.0341054201, -0.2924596369, -0.8343493938, -0.1087585390, 1.7077137232, -0.3006861210, 0.6157716513, -0.2781107426, -0.2767468095, -0.5608413815, -1.2163040638, -0.1097816303, 0.7184557319, 1.5761929750, 0.4418694973, -0.8168610930, 0.7455046177, 0.4540291727, 1.3983632326, 2.0896103382, 1.2146077156, -0.3927581906, -0.1592295468, 1.1579405069, -0.5076931119, -0.1404834688, 0.6343402267, 1.0706061125, 0.2229107618, -2.8925197124, 0.3393659592, -0.3120492101, -0.9759209752, 0.0241301656, 1.1204642057, -1.1298772097, 1.5899230242, 0.9787300825, 0.9341636300, -0.8147085905, -0.2512424588, -0.3828348815, 0.0003409579, -0.0622048005, -0.3173488677, -0.1779273450, -0.2116203159, 0.2674838603, -1.6518170834, 0.4865783453, 1.6972717047, 1.0725008249, -0.9458972216, 1.0446079969, 2.2896277905, -0.2425562590, 0.7210319042, 2.2993803024, 1.0302956104, 1.5507205725, -1.0952255726, 0.2356208563, 0.3919691145, 0.5642871261, 0.7895075679, 0.1561750621, -1.3123941422, 1.0662723780, 0.3788603246, -1.1786166430, 0.7589958310, 0.5529800057, 0.5370345712, -0.2868351936, 1.6344056129, 0.5712266564, -0.7899540663, -1.5427579880, -0.7673321962, -2.3696231842, -0.2605598569, 0.1289570481, -1.2076663971, -0.5454435945, 1.5532826185, 0.1072913334, 1.5353435278, -0.1849514097, -0.1767827123, -2.1992540359, 0.7292887568, 1.1005582809, -0.3423680365, -0.3103042245, 0.8130363822, -0.7362970710, -0.7823243141, 0.3170981705, -0.6062513590, 0.6110578775, -0.9203095436, 1.5095089674, 0.6564636827, 0.0658511817, -0.8736306429, -1.0577539206, -0.8972370028, -1.4322032928, 1.3404302597, 0.3420748413, 1.0706282854, 1.7390650511, 1.3066060543, 0.4496167898, -0.4110504389, 0.7492995262, 0.2111377716, -0.2606511414, -0.5151983500, 1.0792167187, 1.4774627686, -0.2751087248, -0.4370077252, 0.6981697679, -0.6351764202, 0.6036766768, 1.7369296551, -0.4178344309, 0.0245132316, 1.9896930456, -0.3731683195, 0.1410367340, -0.9418154955, -0.7028346062, -1.3788369894, 2.9252495766, 0.5717520118, -0.0458755493, -1.0570642948, -1.8246930838};

#endif

#endif
